svm_type c_svc
kernel_type rbf
gamma 0.08333333333333333
nr_class 2
total_sv 10
rho 0.1130641995779039
label 1 -1
nr_sv 5 5
SV
0.820879146010233 1:0.483871 2:1.0 3:1.0 4:0.536585 5:0.052632 6:1.0 7:-0.232323 8:-0.485714 9:-0.11828 10:1.0 11:-0.999055 12:-1.0 
0.6045423574012492 1:0.0 2:1.0 3:1.0 4:0.536585 5:0.052632 6:1.0 7:-0.232323 8:-0.428571 9:-0.11828 10:1.0 11:-0.999055 12:-1.0 
0.4439408955284764 1:0.451613 2:0.555556 3:1.0 4:0.536585 5:0.157895 6:1.0 7:1.0 8:0.085714 9:-0.032258 10:1.0 11:-1.0 12:-1.0 
0.5354832775946415 1:0.064516 2:0.555556 3:1.0 4:0.536585 5:0.157895 6:1.0 7:1.0 8:0.142857 9:-0.053763 10:1.0 11:-1.0 12:-1.0 
0.32842416334787555 1:0.096774 2:1.0 3:1.0 4:0.414634 5:0.578947 6:1.0 7:1.0 8:0.657143 9:-0.032258 10:1.0 11:-0.999527 12:-1.0 
-0.8073920001238184 1:0.27 2:0.07 3:0.0 4:0.0 5:0.15 6:0.59999996 7:0.0 8:0.0 9:0.36 10:0.0 11:0.71 12:0.0 
-0.5400793738818881 1:0.17 2:0.07 3:0.0 4:0.0 5:0.15 6:0.59999996 7:0.0 8:0.0 9:0.36 10:0.0 11:0.71 12:0.0 
-0.6470723836136062 1:0.16 2:0.29 3:0.99 4:1.02375 5:0.17 6:0.0 7:0.0 8:0.0 9:0.34 10:0.0 11:0.68 12:0.0 
-0.157186110874265 1:0.35 2:0.29 3:0.99 4:1.02375 5:0.17 6:0.0 7:0.0 8:0.0 9:0.34 10:0.0 11:0.68 12:0.0 
-0.5815399713888978 1:0.36 2:0.07 3:0.99 4:2.569 5:0.25 6:0.0 7:0.0 8:0.0 9:0.33 10:0.3 11:0.69 12:0.3 
